{"mass_tone_weight_combination": [[-0.29000000000000004, -0.8699999999999999, 0.0], [-0.19, -0.8699999999999999, 0.0], [-0.09, -0.8699999999999999, 0.0], [0.010000000000000009, -0.8699999999999999, 0.0], [0.11000000000000001, -0.8699999999999999, 0.0], [-0.29000000000000004, -0.72, 0.0], [-0.19, -0.72, 0.5], [-0.09, -0.72, 0.5], [0.010000000000000009, -0.72, 0.5], [0.11000000000000001, -0.72, 0.0], [-0.29000000000000004, -0.57, 0.0], [-0.19, -0.57, 0.5], [-0.09, -0.57, 1.0], [0.010000000000000009, -0.57, 0.5], [0.11000000000000001, -0.57, 0.0], [-0.29000000000000004, -0.41999999999999993, 0.0], [-0.19, -0.41999999999999993, 0.5], [-0.09, -0.41999999999999993, 0.5], [0.010000000000000009, -0.41999999999999993, 0.5], [0.11000000000000001, -0.41999999999999993, 0.0], [-0.29000000000000004, -0.26999999999999996, 0.0], [-0.19, -0.26999999999999996, 0.0], [-0.09, -0.26999999999999996, 0.0], [0.010000000000000009, -0.26999999999999996, 0.0], [0.11000000000000001, -0.26999999999999996, 0.0]], "initial_mass": -0.09, "initial_tone": -0.57}